<?xml version="1.0"?>
<opencv_storage>
<stage0>
  <maxWeakCount>8</maxWeakCount>
  <stageThreshold>-4.6360802650451660e-01</stageThreshold>
  <weakClassifiers>
    <_>
      <internalNodes>
        0 -1 71481 3.9931684732437134e-03</internalNodes>
      <leafValues>
        -6.3912308216094971e-01 9.3120390176773071e-01</leafValues></_>
    <_>
      <internalNodes>
        0 -1 93031 3.8574826903641224e-03</internalNodes>
      <leafValues>
        -5.2292877435684204e-01 9.2171740531921387e-01</leafValues></_>
    <_>
      <internalNodes>
        0 -1 118611 -2.0603092387318611e-02</internalNodes>
      <leafValues>
        7.8710001707077026e-01 -6.6759335994720459e-01</leafValues></_>
    <_>
      <internalNodes>
        0 -1 69940 -1.0462560690939426e-02</internalNodes>
      <leafValues>
        6.1229830980300903e-01 -8.0457705259323120e-01</leafValues></_>
    <_>
      <internalNodes>
        0 -1 9856 -2.5707702661748044e-05</internalNodes>
      <leafValues>
        -1. 4.3250867724418640e-01</leafValues></_>
    <_>
      <internalNodes>
        0 -1 424 1.8913246691226959e-02</internalNodes>
      <leafValues>
        -9.3974184989929199e-01 3.9381912350654602e-01</leafValues></_>
    <_>
      <internalNodes>
        0 -1 78234 1.6156397759914398e-02</internalNodes>
      <leafValues>
        -5.7915395498275757e-01 8.4384912252426147e-01</leafValues></_>
    <_>
      <internalNodes>
        0 -1 9555 2.5757921321201138e-05</internalNodes>
      <leafValues>
        5.0656515359878540e-01 -1.</leafValues></_></weakClassifiers></stage0>
</opencv_storage>
