<?xml version="1.0"?>
<opencv_storage>
<stage0>
  <maxWeakCount>6</maxWeakCount>
  <stageThreshold>-8.8171988725662231e-01</stageThreshold>
  <weakClassifiers>
    <_>
      <internalNodes>
        0 -1 84176 1.3353751972317696e-02</internalNodes>
      <leafValues>
        -6.5232974290847778e-01 8.2352942228317261e-01</leafValues></_>
    <_>
      <internalNodes>
        0 -1 61276 3.6787230055779219e-03</internalNodes>
      <leafValues>
        -6.0992360115051270e-01 9.1389679908752441e-01</leafValues></_>
    <_>
      <internalNodes>
        0 -1 484 4.3262209743261337e-02</internalNodes>
      <leafValues>
        -9.6600711345672607e-01 5.7625925540924072e-01</leafValues></_>
    <_>
      <internalNodes>
        0 -1 62206 -6.1008734628558159e-03</internalNodes>
      <leafValues>
        9.3622237443923950e-01 -5.1208227872848511e-01</leafValues></_>
    <_>
      <internalNodes>
        0 -1 107494 -3.6290682852268219e-02</internalNodes>
      <leafValues>
        9.9682736396789551e-01 -4.6644818782806396e-01</leafValues></_>
    <_>
      <internalNodes>
        0 -1 69940 -1.0330269113183022e-02</internalNodes>
      <leafValues>
        6.6174948215484619e-01 -7.4101579189300537e-01</leafValues></_></weakClassifiers></stage0>
</opencv_storage>
